digraph Tree {
node [shape=box, style="filled, rounded", color="black", fontname=helvetica] ;
edge [fontname=helvetica] ;
0 [label="cause_of_infection_OB <= 0.5\ngini = 0.5\nsamples = 720\nvalue = [568, 568]\nclass = age_group_30s", fillcolor="#ffffff"] ;
1 [label="cause_of_infection_CC <= 0.5\ngini = 0.48\nsamples = 494\nvalue = [302, 473]\nclass = age_group_40s", fillcolor="#b7dcf6"] ;
0 -> 1 [labeldistance=2.5, labelangle=45, headlabel="True"] ;
2 [label="Parks Re-opened <= 0.5\ngini = 0.46\nsamples = 149\nvalue = [155, 87]\nclass = age_group_30s", fillcolor="#f4c8a8"] ;
1 -> 2 ;
3 [label="lockdown <= 0.5\ngini = 0.4\nsamples = 113\nvalue = [133, 51]\nclass = age_group_30s", fillcolor="#efb185"] ;
2 -> 3 ;
4 [label="Fatal_no <= 0.5\ngini = 0.46\nsamples = 65\nvalue = [68, 37]\nclass = age_group_30s", fillcolor="#f3c6a5"] ;
3 -> 4 ;
5 [label="gini = 0.0\nsamples = 1\nvalue = [0, 2]\nclass = age_group_40s", fillcolor="#399de5"] ;
4 -> 5 ;
6 [label="cause_of_infection_NO KNOWN EPI LINK <= 0.5\ngini = 0.45\nsamples = 64\nvalue = [68, 35]\nclass = age_group_30s", fillcolor="#f2c29f"] ;
4 -> 6 ;
7 [label="cause_of_infection_MISSING INFORMATION <= 0.5\ngini = 0.48\nsamples = 16\nvalue = [17, 11]\nclass = age_group_30s", fillcolor="#f6d3b9"] ;
6 -> 7 ;
8 [label="Gatineau-Ottawa Travel Restriction <= 0.5\ngini = 0.47\nsamples = 6\nvalue = [3, 5]\nclass = age_group_40s", fillcolor="#b0d8f5"] ;
7 -> 8 ;
9 [label="reporting_phu_city_Toronto <= 0.5\ngini = 0.49\nsamples = 5\nvalue = [3, 4]\nclass = age_group_40s", fillcolor="#cee6f8"] ;
8 -> 9 ;
10 [label="gini = 0.5\nsamples = 3\nvalue = [2, 2]\nclass = age_group_30s", fillcolor="#ffffff"] ;
9 -> 10 ;
11 [label="gini = 0.44\nsamples = 2\nvalue = [1, 2]\nclass = age_group_40s", fillcolor="#9ccef2"] ;
9 -> 11 ;
12 [label="gini = 0.0\nsamples = 1\nvalue = [0, 1]\nclass = age_group_40s", fillcolor="#399de5"] ;
8 -> 12 ;
13 [label="gender_MALE <= 0.5\ngini = 0.42\nsamples = 10\nvalue = [14, 6]\nclass = age_group_30s", fillcolor="#f0b78e"] ;
7 -> 13 ;
14 [label="gini = 0.18\nsamples = 5\nvalue = [9, 1]\nclass = age_group_30s", fillcolor="#e88f4f"] ;
13 -> 14 ;
15 [label="gini = 0.5\nsamples = 5\nvalue = [5, 5]\nclass = age_group_30s", fillcolor="#ffffff"] ;
13 -> 15 ;
16 [label="reporting_phu_city_Toronto <= 0.5\ngini = 0.44\nsamples = 48\nvalue = [51, 24]\nclass = age_group_30s", fillcolor="#f1bc96"] ;
6 -> 16 ;
17 [label="gender_MALE <= 0.5\ngini = 0.5\nsamples = 7\nvalue = [5, 6]\nclass = age_group_40s", fillcolor="#deeffb"] ;
16 -> 17 ;
18 [label="Restart <= 0.5\ngini = 0.5\nsamples = 5\nvalue = [3, 3]\nclass = age_group_30s", fillcolor="#ffffff"] ;
17 -> 18 ;
19 [label="gini = 0.0\nsamples = 1\nvalue = [1, 0]\nclass = age_group_30s", fillcolor="#e58139"] ;
18 -> 19 ;
20 [label="gini = 0.48\nsamples = 4\nvalue = [2, 3]\nclass = age_group_40s", fillcolor="#bddef6"] ;
18 -> 20 ;
21 [label="Restart <= 0.5\ngini = 0.48\nsamples = 2\nvalue = [2, 3]\nclass = age_group_40s", fillcolor="#bddef6"] ;
17 -> 21 ;
22 [label="gini = 0.0\nsamples = 1\nvalue = [2, 0]\nclass = age_group_30s", fillcolor="#e58139"] ;
21 -> 22 ;
23 [label="gini = 0.0\nsamples = 1\nvalue = [0, 3]\nclass = age_group_40s", fillcolor="#399de5"] ;
21 -> 23 ;
24 [label="gender_MALE <= 0.5\ngini = 0.4\nsamples = 41\nvalue = [46, 18]\nclass = age_group_30s", fillcolor="#efb286"] ;
16 -> 24 ;
25 [label="Gatineau-Ottawa Travel Restriction <= 0.5\ngini = 0.44\nsamples = 20\nvalue = [18, 9]\nclass = age_group_30s", fillcolor="#f2c09c"] ;
24 -> 25 ;
26 [label="gini = 0.4\nsamples = 17\nvalue = [16, 6]\nclass = age_group_30s", fillcolor="#efb083"] ;
25 -> 26 ;
27 [label="gini = 0.48\nsamples = 3\nvalue = [2, 3]\nclass = age_group_40s", fillcolor="#bddef6"] ;
25 -> 27 ;
28 [label="gini = 0.37\nsamples = 21\nvalue = [28, 9]\nclass = age_group_30s", fillcolor="#edaa79"] ;
24 -> 28 ;
29 [label="reporting_phu_city_Toronto <= 0.5\ngini = 0.29\nsamples = 48\nvalue = [65, 14]\nclass = age_group_30s", fillcolor="#eb9c64"] ;
3 -> 29 ;
30 [label="gender_FEMALE <= 0.5\ngini = 0.46\nsamples = 8\nvalue = [9, 5]\nclass = age_group_30s", fillcolor="#f3c7a7"] ;
29 -> 30 ;
31 [label="cause_of_infection_TRAVEL <= 0.5\ngini = 0.44\nsamples = 4\nvalue = [6, 3]\nclass = age_group_30s", fillcolor="#f2c09c"] ;
30 -> 31 ;
32 [label="gini = 0.47\nsamples = 3\nvalue = [5, 3]\nclass = age_group_30s", fillcolor="#f5cdb0"] ;
31 -> 32 ;
33 [label="gini = 0.0\nsamples = 1\nvalue = [1, 0]\nclass = age_group_30s", fillcolor="#e58139"] ;
31 -> 33 ;
34 [label="cause_of_infection_NO KNOWN EPI LINK <= 0.5\ngini = 0.48\nsamples = 4\nvalue = [3, 2]\nclass = age_group_30s", fillcolor="#f6d5bd"] ;
30 -> 34 ;
35 [label="gini = 0.0\nsamples = 2\nvalue = [2, 0]\nclass = age_group_30s", fillcolor="#e58139"] ;
34 -> 35 ;
36 [label="gini = 0.44\nsamples = 2\nvalue = [1, 2]\nclass = age_group_40s", fillcolor="#9ccef2"] ;
34 -> 36 ;
37 [label="cause_of_infection_MISSING INFORMATION <= 0.5\ngini = 0.24\nsamples = 40\nvalue = [56, 9]\nclass = age_group_30s", fillcolor="#e99559"] ;
29 -> 37 ;
38 [label="gender_FEMALE <= 0.5\ngini = 0.3\nsamples = 30\nvalue = [40, 9]\nclass = age_group_30s", fillcolor="#eb9d66"] ;
37 -> 38 ;
39 [label="cause_of_infection_TRAVEL <= 0.5\ngini = 0.18\nsamples = 13\nvalue = [18, 2]\nclass = age_group_30s", fillcolor="#e88f4f"] ;
38 -> 39 ;
40 [label="gini = 0.24\nsamples = 10\nvalue = [12, 2]\nclass = age_group_30s", fillcolor="#e9965a"] ;
39 -> 40 ;
41 [label="gini = 0.0\nsamples = 3\nvalue = [6, 0]\nclass = age_group_30s", fillcolor="#e58139"] ;
39 -> 41 ;
42 [label="cause_of_infection_NO KNOWN EPI LINK <= 0.5\ngini = 0.37\nsamples = 17\nvalue = [22, 7]\nclass = age_group_30s", fillcolor="#eda978"] ;
38 -> 42 ;
43 [label="gini = 0.0\nsamples = 1\nvalue = [0, 3]\nclass = age_group_40s", fillcolor="#399de5"] ;
42 -> 43 ;
44 [label="Resolved_yes <= 0.5\ngini = 0.26\nsamples = 16\nvalue = [22, 4]\nclass = age_group_30s", fillcolor="#ea985d"] ;
42 -> 44 ;
45 [label="gini = 0.0\nsamples = 1\nvalue = [1, 0]\nclass = age_group_30s", fillcolor="#e58139"] ;
44 -> 45 ;
46 [label="gini = 0.27\nsamples = 15\nvalue = [21, 4]\nclass = age_group_30s", fillcolor="#ea995f"] ;
44 -> 46 ;
47 [label="gini = 0.0\nsamples = 10\nvalue = [16, 0]\nclass = age_group_30s", fillcolor="#e58139"] ;
37 -> 47 ;
48 [label="reporting_phu_city_Ottawa <= 0.5\ngini = 0.47\nsamples = 36\nvalue = [22, 36]\nclass = age_group_40s", fillcolor="#b2d9f5"] ;
2 -> 48 ;
49 [label="gender_FEMALE <= 0.5\ngini = 0.5\nsamples = 25\nvalue = [21, 21]\nclass = age_group_30s", fillcolor="#ffffff"] ;
48 -> 49 ;
50 [label="cause_of_infection_MISSING INFORMATION <= 0.5\ngini = 0.5\nsamples = 10\nvalue = [9, 8]\nclass = age_group_30s", fillcolor="#fcf1e9"] ;
49 -> 50 ;
51 [label="gini = 0.44\nsamples = 8\nvalue = [4, 8]\nclass = age_group_40s", fillcolor="#9ccef2"] ;
50 -> 51 ;
52 [label="gini = 0.0\nsamples = 2\nvalue = [5, 0]\nclass = age_group_30s", fillcolor="#e58139"] ;
50 -> 52 ;
53 [label="cause_of_infection_MISSING INFORMATION <= 0.5\ngini = 0.5\nsamples = 15\nvalue = [12, 13]\nclass = age_group_40s", fillcolor="#f0f7fd"] ;
49 -> 53 ;
54 [label="cause_of_infection_NO KNOWN EPI LINK <= 0.5\ngini = 0.5\nsamples = 14\nvalue = [12, 11]\nclass = age_group_30s", fillcolor="#fdf5ef"] ;
53 -> 54 ;
55 [label="gini = 0.44\nsamples = 2\nvalue = [1, 2]\nclass = age_group_40s", fillcolor="#9ccef2"] ;
54 -> 55 ;
56 [label="gini = 0.5\nsamples = 12\nvalue = [11, 9]\nclass = age_group_30s", fillcolor="#fae8db"] ;
54 -> 56 ;
57 [label="gini = 0.0\nsamples = 1\nvalue = [0, 2]\nclass = age_group_40s", fillcolor="#399de5"] ;
53 -> 57 ;
58 [label="cause_of_infection_NO KNOWN EPI LINK <= 0.5\ngini = 0.12\nsamples = 11\nvalue = [1, 15]\nclass = age_group_40s", fillcolor="#46a4e7"] ;
48 -> 58 ;
59 [label="gini = 0.0\nsamples = 3\nvalue = [0, 5]\nclass = age_group_40s", fillcolor="#399de5"] ;
58 -> 59 ;
60 [label="gender_MALE <= 0.5\ngini = 0.17\nsamples = 8\nvalue = [1, 10]\nclass = age_group_40s", fillcolor="#4da7e8"] ;
58 -> 60 ;
61 [label="gini = 0.32\nsamples = 4\nvalue = [1, 4]\nclass = age_group_40s", fillcolor="#6ab6ec"] ;
60 -> 61 ;
62 [label="gini = 0.0\nsamples = 4\nvalue = [0, 6]\nclass = age_group_40s", fillcolor="#399de5"] ;
60 -> 62 ;
63 [label="Resolved_no <= 0.5\ngini = 0.4\nsamples = 345\nvalue = [147, 386]\nclass = age_group_40s", fillcolor="#84c2ef"] ;
1 -> 63 ;
64 [label="gender_MALE <= 0.5\ngini = 0.39\nsamples = 343\nvalue = [143, 386]\nclass = age_group_40s", fillcolor="#82c1ef"] ;
63 -> 64 ;
65 [label="lockdown <= 0.5\ngini = 0.43\nsamples = 169\nvalue = [80, 175]\nclass = age_group_40s", fillcolor="#94caf1"] ;
64 -> 65 ;
66 [label="reporting_phu_city_Ottawa <= 0.5\ngini = 0.34\nsamples = 113\nvalue = [35, 123]\nclass = age_group_40s", fillcolor="#71b9ec"] ;
65 -> 66 ;
67 [label="gender_UNSPECIFIED <= 0.5\ngini = 0.38\nsamples = 92\nvalue = [33, 94]\nclass = age_group_40s", fillcolor="#7fbfee"] ;
66 -> 67 ;
68 [label="Parks Re-opened <= 0.5\ngini = 0.39\nsamples = 91\nvalue = [33, 93]\nclass = age_group_40s", fillcolor="#7fc0ee"] ;
67 -> 68 ;
69 [label="Gatineau-Ottawa Travel Restriction <= 0.5\ngini = 0.37\nsamples = 68\nvalue = [23, 70]\nclass = age_group_40s", fillcolor="#7abdee"] ;
68 -> 69 ;
70 [label="gini = 0.35\nsamples = 57\nvalue = [18, 62]\nclass = age_group_40s", fillcolor="#72b9ed"] ;
69 -> 70 ;
71 [label="gini = 0.47\nsamples = 11\nvalue = [5, 8]\nclass = age_group_40s", fillcolor="#b5daf5"] ;
69 -> 71 ;
72 [label="gini = 0.42\nsamples = 23\nvalue = [10, 23]\nclass = age_group_40s", fillcolor="#8fc8f0"] ;
68 -> 72 ;
73 [label="gini = 0.0\nsamples = 1\nvalue = [0, 1]\nclass = age_group_40s", fillcolor="#399de5"] ;
67 -> 73 ;
74 [label="Parks Re-opened <= 0.5\ngini = 0.12\nsamples = 21\nvalue = [2, 29]\nclass = age_group_40s", fillcolor="#47a4e7"] ;
66 -> 74 ;
75 [label="gini = 0.0\nsamples = 4\nvalue = [0, 5]\nclass = age_group_40s", fillcolor="#399de5"] ;
74 -> 75 ;
76 [label="gini = 0.14\nsamples = 17\nvalue = [2, 24]\nclass = age_group_40s", fillcolor="#49a5e7"] ;
74 -> 76 ;
77 [label="reporting_phu_city_Ottawa <= 0.5\ngini = 0.5\nsamples = 56\nvalue = [45, 52]\nclass = age_group_40s", fillcolor="#e4f2fc"] ;
65 -> 77 ;
78 [label="gini = 0.5\nsamples = 44\nvalue = [41, 37]\nclass = age_group_30s", fillcolor="#fcf3ec"] ;
77 -> 78 ;
79 [label="gini = 0.33\nsamples = 12\nvalue = [4, 15]\nclass = age_group_40s", fillcolor="#6eb7ec"] ;
77 -> 79 ;
80 [label="reporting_phu_city_Toronto <= 0.5\ngini = 0.35\nsamples = 174\nvalue = [63, 211]\nclass = age_group_40s", fillcolor="#74baed"] ;
64 -> 80 ;
81 [label="Parks Re-opened <= 0.5\ngini = 0.18\nsamples = 35\nvalue = [5, 44]\nclass = age_group_40s", fillcolor="#50a8e8"] ;
80 -> 81 ;
82 [label="Restart <= 0.5\ngini = 0.16\nsamples = 24\nvalue = [3, 31]\nclass = age_group_40s", fillcolor="#4ca6e8"] ;
81 -> 82 ;
83 [label="lockdown <= 0.5\ngini = 0.18\nsamples = 21\nvalue = [3, 27]\nclass = age_group_40s", fillcolor="#4fa8e8"] ;
82 -> 83 ;
84 [label="gini = 0.0\nsamples = 6\nvalue = [0, 8]\nclass = age_group_40s", fillcolor="#399de5"] ;
83 -> 84 ;
85 [label="gini = 0.24\nsamples = 15\nvalue = [3, 19]\nclass = age_group_40s", fillcolor="#58ace9"] ;
83 -> 85 ;
86 [label="gini = 0.0\nsamples = 3\nvalue = [0, 4]\nclass = age_group_40s", fillcolor="#399de5"] ;
82 -> 86 ;
87 [label="gini = 0.23\nsamples = 11\nvalue = [2, 13]\nclass = age_group_40s", fillcolor="#57ace9"] ;
81 -> 87 ;
88 [label="Gatineau-Ottawa Travel Restriction <= 0.5\ngini = 0.38\nsamples = 139\nvalue = [58, 167]\nclass = age_group_40s", fillcolor="#7ebfee"] ;
80 -> 88 ;
89 [label="Parks Re-opened <= 0.5\ngini = 0.38\nsamples = 130\nvalue = [55, 157]\nclass = age_group_40s", fillcolor="#7ebfee"] ;
88 -> 89 ;
90 [label="lockdown <= 0.5\ngini = 0.38\nsamples = 97\nvalue = [40, 117]\nclass = age_group_40s", fillcolor="#7dbfee"] ;
89 -> 90 ;
91 [label="gini = 0.39\nsamples = 53\nvalue = [24, 68]\nclass = age_group_40s", fillcolor="#7fc0ee"] ;
90 -> 91 ;
92 [label="gini = 0.37\nsamples = 44\nvalue = [16, 49]\nclass = age_group_40s", fillcolor="#7abded"] ;
90 -> 92 ;
93 [label="gini = 0.4\nsamples = 33\nvalue = [15, 40]\nclass = age_group_40s", fillcolor="#83c2ef"] ;
89 -> 93 ;
94 [label="gini = 0.36\nsamples = 9\nvalue = [3, 10]\nclass = age_group_40s", fillcolor="#74baed"] ;
88 -> 94 ;
95 [label="gini = 0.0\nsamples = 2\nvalue = [4, 0]\nclass = age_group_30s", fillcolor="#e58139"] ;
63 -> 95 ;
96 [label="gender_FEMALE <= 0.5\ngini = 0.39\nsamples = 226\nvalue = [266, 95]\nclass = age_group_30s", fillcolor="#eeae80"] ;
0 -> 96 [labeldistance=2.5, labelangle=-45, headlabel="False"] ;
97 [label="Resolved_yes <= 0.5\ngini = 0.48\nsamples = 83\nvalue = [79, 54]\nclass = age_group_30s", fillcolor="#f7d7c0"] ;
96 -> 97 ;
98 [label="gini = 0.0\nsamples = 8\nvalue = [12, 0]\nclass = age_group_30s", fillcolor="#e58139"] ;
97 -> 98 ;
99 [label="reporting_phu_city_Toronto <= 0.5\ngini = 0.49\nsamples = 75\nvalue = [67, 54]\nclass = age_group_30s", fillcolor="#fae7d9"] ;
97 -> 99 ;
100 [label="gini = 0.38\nsamples = 3\nvalue = [6, 2]\nclass = age_group_30s", fillcolor="#eeab7b"] ;
99 -> 100 ;
101 [label="Gatineau-Ottawa Travel Restriction <= 0.5\ngini = 0.5\nsamples = 72\nvalue = [61, 52]\nclass = age_group_30s", fillcolor="#fbece2"] ;
99 -> 101 ;
102 [label="gender_UNSPECIFIED <= 0.5\ngini = 0.5\nsamples = 71\nvalue = [61, 51]\nclass = age_group_30s", fillcolor="#fbeadf"] ;
101 -> 102 ;
103 [label="lockdown <= 0.5\ngini = 0.44\nsamples = 57\nvalue = [59, 28]\nclass = age_group_30s", fillcolor="#f1bd97"] ;
102 -> 103 ;
104 [label="Parks Re-opened <= 0.5\ngini = 0.48\nsamples = 23\nvalue = [22, 15]\nclass = age_group_30s", fillcolor="#f7d7c0"] ;
103 -> 104 ;
105 [label="gini = 0.49\nsamples = 20\nvalue = [19, 14]\nclass = age_group_30s", fillcolor="#f8decb"] ;
104 -> 105 ;
106 [label="gini = 0.38\nsamples = 3\nvalue = [3, 1]\nclass = age_group_30s", fillcolor="#eeab7b"] ;
104 -> 106 ;
107 [label="gini = 0.38\nsamples = 34\nvalue = [37, 13]\nclass = age_group_30s", fillcolor="#eead7f"] ;
103 -> 107 ;
108 [label="lockdown <= 0.5\ngini = 0.15\nsamples = 14\nvalue = [2, 23]\nclass = age_group_40s", fillcolor="#4aa6e7"] ;
102 -> 108 ;
109 [label="gini = 0.0\nsamples = 12\nvalue = [0, 23]\nclass = age_group_40s", fillcolor="#399de5"] ;
108 -> 109 ;
110 [label="gini = 0.0\nsamples = 2\nvalue = [2, 0]\nclass = age_group_30s", fillcolor="#e58139"] ;
108 -> 110 ;
111 [label="gini = 0.0\nsamples = 1\nvalue = [0, 1]\nclass = age_group_40s", fillcolor="#399de5"] ;
101 -> 111 ;
112 [label="Resolved_yes <= 0.5\ngini = 0.29\nsamples = 143\nvalue = [187, 41]\nclass = age_group_30s", fillcolor="#eb9d64"] ;
96 -> 112 ;
113 [label="gini = 0.0\nsamples = 31\nvalue = [52, 0]\nclass = age_group_30s", fillcolor="#e58139"] ;
112 -> 113 ;
114 [label="Parks Re-opened <= 0.5\ngini = 0.36\nsamples = 112\nvalue = [135, 41]\nclass = age_group_30s", fillcolor="#eda775"] ;
112 -> 114 ;
115 [label="lockdown <= 0.5\ngini = 0.34\nsamples = 102\nvalue = [128, 35]\nclass = age_group_30s", fillcolor="#eca36f"] ;
114 -> 115 ;
116 [label="Gatineau-Ottawa Travel Restriction <= 0.5\ngini = 0.47\nsamples = 17\nvalue = [11, 18]\nclass = age_group_40s", fillcolor="#b2d9f5"] ;
115 -> 116 ;
117 [label="gini = 0.47\nsamples = 13\nvalue = [9, 15]\nclass = age_group_40s", fillcolor="#b0d8f5"] ;
116 -> 117 ;
118 [label="gini = 0.48\nsamples = 4\nvalue = [2, 3]\nclass = age_group_40s", fillcolor="#bddef6"] ;
116 -> 118 ;
119 [label="reporting_phu_city_Toronto <= 0.5\ngini = 0.22\nsamples = 85\nvalue = [117, 17]\nclass = age_group_30s", fillcolor="#e99356"] ;
115 -> 119 ;
120 [label="gini = 0.31\nsamples = 14\nvalue = [17, 4]\nclass = age_group_30s", fillcolor="#eb9f68"] ;
119 -> 120 ;
121 [label="gini = 0.2\nsamples = 71\nvalue = [100, 13]\nclass = age_group_30s", fillcolor="#e89153"] ;
119 -> 121 ;
122 [label="reporting_phu_city_Toronto <= 0.5\ngini = 0.5\nsamples = 10\nvalue = [7, 6]\nclass = age_group_30s", fillcolor="#fbede3"] ;
114 -> 122 ;
123 [label="gini = 0.0\nsamples = 3\nvalue = [0, 5]\nclass = age_group_40s", fillcolor="#399de5"] ;
122 -> 123 ;
124 [label="gini = 0.22\nsamples = 7\nvalue = [7, 1]\nclass = age_group_30s", fillcolor="#e99355"] ;
122 -> 124 ;
}